<?xml version="1.0" encoding="UTF-8"?>
<BIF VERSION="0.3"  xmlns="http://www.cs.ubc.ca/labs/lci/fopi/ve/XMLBIFv0_3"
	xmlns:xsi="http://www.w3.org/2001/XMLSchema-instance"
	xsi:schemaLocation="http://www.cs.ubc.ca/labs/lci/fopi/ve/XMLBIFv0_3 http://www.cs.ubc.ca/labs/lci/fopi/ve/XMLBIFv0_3/XMLBIFv0_3.xsd">
<NETWORK>
<NAME>Nuclear Power Station</NAME>
<PROPERTY>detailed = </PROPERTY>
<PROPERTY>short = </PROPERTY>

<VARIABLE TYPE="nature">
	<NAME>WaterLeak</NAME>
	<OUTCOME>T</OUTCOME>
	<OUTCOME>F</OUTCOME>
	<PROPERTY>position = (7380.46533203125, 5050.52099609375)</PROPERTY>
</VARIABLE>

<VARIABLE TYPE="nature">
	<NAME>WaterLeakWarning</NAME>
	<OUTCOME>T</OUTCOME>
	<OUTCOME>F</OUTCOME>
	<PROPERTY>position = (7566.7119140625, 5116.81005859375)</PROPERTY>
</VARIABLE>

<VARIABLE TYPE="nature">
	<NAME>IcyWeather</NAME>
	<OUTCOME>T</OUTCOME>
	<OUTCOME>F</OUTCOME>
	<PROPERTY>position = (7579.115234375, 5045.953125)</PROPERTY>
</VARIABLE>

<VARIABLE TYPE="nature">
	<NAME>PumpFailure</NAME>
	<OUTCOME>T</OUTCOME>
	<OUTCOME>F</OUTCOME>
	<PROPERTY>position = (7194.728515625, 5063.0361328125)</PROPERTY>
</VARIABLE>

<VARIABLE TYPE="nature">
	<NAME>PumpFailureWarning</NAME>
	<OUTCOME>T</OUTCOME>
	<OUTCOME>F</OUTCOME>
	<PROPERTY>position = (7165.3916015625, 5190.552734375)</PROPERTY>
</VARIABLE>

<VARIABLE TYPE="nature">
	<NAME>Meltdown</NAME>
	<OUTCOME>T</OUTCOME>
	<OUTCOME>F</OUTCOME>
	<PROPERTY>position = (7340.8447265625, 5122.67138671875)</PROPERTY>
</VARIABLE>

<VARIABLE TYPE="nature">
	<NAME>battery</NAME>
	<OUTCOME>T</OUTCOME>
	<OUTCOME>F</OUTCOME>
	<PROPERTY>position = (7845.3642578125, 5085.392578125)</PROPERTY>
</VARIABLE>

<VARIABLE TYPE="nature">
	<NAME>radio</NAME>
	<OUTCOME>T</OUTCOME>
	<OUTCOME>F</OUTCOME>
	<PROPERTY>position = (7778.6142578125, 5199.353515625)</PROPERTY>
</VARIABLE>

<VARIABLE TYPE="nature">
	<NAME>ignition</NAME>
	<OUTCOME>T</OUTCOME>
	<OUTCOME>F</OUTCOME>
	<PROPERTY>position = (7901.39990234375, 5154.70703125)</PROPERTY>
</VARIABLE>

<VARIABLE TYPE="nature">
	<NAME>gas</NAME>
	<OUTCOME>T</OUTCOME>
	<OUTCOME>F</OUTCOME>
	<PROPERTY>position = (8021.80029296875, 5149.13037109375)</PROPERTY>
</VARIABLE>

<VARIABLE TYPE="nature">
	<NAME>starts</NAME>
	<OUTCOME>T</OUTCOME>
	<OUTCOME>F</OUTCOME>
	<PROPERTY>position = (7989.2216796875, 5236.83935546875)</PROPERTY>
</VARIABLE>

<VARIABLE TYPE="nature">
	<NAME>moves</NAME>
	<OUTCOME>T</OUTCOME>
	<OUTCOME>F</OUTCOME>
	<PROPERTY>position = (7993.052734375, 5320.54931640625)</PROPERTY>
</VARIABLE>

<VARIABLE TYPE="nature">
	<NAME>owner_survives</NAME>
	<OUTCOME>T</OUTCOME>
	<OUTCOME>F</OUTCOME>
	<PROPERTY>position = (7694.0908203125, 5447.3369140625)</PROPERTY>
</VARIABLE>

<VARIABLE TYPE="nature">
	<NAME>bicycle_works</NAME>
	<OUTCOME>T</OUTCOME>
	<OUTCOME>F</OUTCOME>
	<PROPERTY>position = (7697.84619140625, 5149.96533203125)</PROPERTY>
</VARIABLE>

<VARIABLE TYPE="nature">
	<NAME>H.S_reacts</NAME>
	<OUTCOME>T</OUTCOME>
	<OUTCOME>F</OUTCOME>
	<PROPERTY>position = (7534.19677734375, 5206.0986328125)</PROPERTY>
</VARIABLE>

<VARIABLE TYPE="nature">
	<NAME>H.S_sleeps</NAME>
	<OUTCOME>T</OUTCOME>
	<OUTCOME>F</OUTCOME>
	<PROPERTY>position = (7422.63037109375, 5267.30712890625)</PROPERTY>
</VARIABLE>

<VARIABLE TYPE="nature">
	<NAME>H.S_knowswhattodo</NAME>
	<OUTCOME>T</OUTCOME>
	<OUTCOME>F</OUTCOME>
	<PROPERTY>position = (7585.39794921875, 5288.52783203125)</PROPERTY>
</VARIABLE>

<VARIABLE TYPE="nature">
	<NAME>H.S_survives</NAME>
	<OUTCOME>T</OUTCOME>
	<OUTCOME>F</OUTCOME>
	<PROPERTY>position = (7406.8583984375, 5416.046875)</PROPERTY>
</VARIABLE>

<VARIABLE TYPE="nature">
	<NAME>PFW_OR_WLW</NAME>
	<OUTCOME>T</OUTCOME>
	<OUTCOME>F</OUTCOME>
	<PROPERTY>position = (7193.2001953125, 5349.142578125)</PROPERTY>
</VARIABLE>

<VARIABLE TYPE="nature">
	<NAME>tired</NAME>
	<OUTCOME>T</OUTCOME>
	<OUTCOME>F</OUTCOME>
	<PROPERTY>position = (7325.0, 5313.0)</PROPERTY>
</VARIABLE>

<DEFINITION>
	<FOR>WaterLeak</FOR>
	<GIVEN>IcyWeather</GIVEN>
	<TABLE>0.2 0.8 0.1 0.9</TABLE>
</DEFINITION>

<DEFINITION>
	<FOR>WaterLeakWarning</FOR>
	<GIVEN>WaterLeak</GIVEN>
	<TABLE>0.9 0.1 0.05 0.95</TABLE>
</DEFINITION>

<DEFINITION>
	<FOR>IcyWeather</FOR>
	<TABLE>0.05 0.95</TABLE>
</DEFINITION>

<DEFINITION>
	<FOR>PumpFailure</FOR>
	<TABLE>0.05 0.95</TABLE>
</DEFINITION>

<DEFINITION>
	<FOR>PumpFailureWarning</FOR>
	<GIVEN>PumpFailure</GIVEN>
	<TABLE>0.9 0.1 0.05 0.95</TABLE>
</DEFINITION>

<DEFINITION>
	<FOR>Meltdown</FOR>
	<GIVEN>WaterLeak</GIVEN>
	<GIVEN>PumpFailure</GIVEN>
	<TABLE>0.2 0.8 0.1 0.9 0.15 0.85 0.001 0.999</TABLE>
</DEFINITION>

<DEFINITION>
	<FOR>battery</FOR>
	<GIVEN>IcyWeather</GIVEN>
	<TABLE>0.8 0.2 0.95 0.05</TABLE>
</DEFINITION>

<DEFINITION>
	<FOR>radio</FOR>
	<GIVEN>battery</GIVEN>
	<TABLE>0.95 0.05 0.0 1.0</TABLE>
</DEFINITION>

<DEFINITION>
	<FOR>ignition</FOR>
	<GIVEN>battery</GIVEN>
	<TABLE>0.95 0.05 0.0 1.0</TABLE>
</DEFINITION>

<DEFINITION>
	<FOR>gas</FOR>
	<TABLE>0.95 0.05</TABLE>
</DEFINITION>

<DEFINITION>
	<FOR>starts</FOR>
	<GIVEN>ignition</GIVEN>
	<GIVEN>gas</GIVEN>
	<TABLE>0.95 0.05 0.0 1.0 0.0 1.0 0.0 1.0</TABLE>
</DEFINITION>

<DEFINITION>
	<FOR>moves</FOR>
	<GIVEN>starts</GIVEN>
	<TABLE>0.95 0.05 0.0 1.0</TABLE>
</DEFINITION>

<DEFINITION>
	<FOR>owner_survives</FOR>
	<GIVEN>Meltdown</GIVEN>
	<GIVEN>moves</GIVEN>
	<GIVEN>bicycle_works</GIVEN>
	<GIVEN>H.S_knowswhattodo</GIVEN>
	<TABLE>0.9 0.1 0.9 0.1 0.9 0.1 0.8 0.2 0.6 0.4 0.6 0.4 0.6 0.4 0.0 1.0 1.0 0.0 1.0 0.0 1.0 0.0 1.0 0.0 1.0 0.0 1.0 0.0 1.0 0.0 1.0 0.0</TABLE>
</DEFINITION>

<DEFINITION>
	<FOR>bicycle_works</FOR>
	<TABLE>0.9 0.1</TABLE>
</DEFINITION>

<DEFINITION>
	<FOR>H.S_reacts</FOR>
	<GIVEN>WaterLeakWarning</GIVEN>
	<GIVEN>PumpFailureWarning</GIVEN>
	<GIVEN>H.S_sleeps</GIVEN>
	<TABLE>0.0 1.0 0.6 0.4 0.0 1.0 0.4 0.6 0.0 1.0 0.4 0.6 0.0 1.0 0.0 1.0</TABLE>
</DEFINITION>

<DEFINITION>
	<FOR>H.S_sleeps</FOR>
	<GIVEN>tired</GIVEN>
	<TABLE>0.8 0.2 0.8 0.2</TABLE>
</DEFINITION>

<DEFINITION>
	<FOR>H.S_knowswhattodo</FOR>
	<GIVEN>H.S_reacts</GIVEN>
	<TABLE>0.5 0.5 0.5 0.5</TABLE>
</DEFINITION>

<DEFINITION>
	<FOR>H.S_survives</FOR>
	<GIVEN>moves</GIVEN>
	<GIVEN>PFW_OR_WLW</GIVEN>
	<TABLE>0.8 0.2 1.0 0.0 0.0 1.0 1.0 0.0</TABLE>
</DEFINITION>

<DEFINITION>
	<FOR>PFW_OR_WLW</FOR>
	<GIVEN>WaterLeakWarning</GIVEN>
	<GIVEN>PumpFailureWarning</GIVEN>
	<TABLE>1.0 0.0 1.0 0.0 1.0 0.0 0.0 1.0</TABLE>
</DEFINITION>

<DEFINITION>
	<FOR>tired</FOR>
	<TABLE>0.2 0.8</TABLE>
</DEFINITION>
</NETWORK>
</BIF>
